digraph Tree {
node [shape=box, style="filled, rounded", color="black", fontname=helvetica] ;
edge [fontname=helvetica] ;
0 [label="x1 <= 0.197\nmse = 0.098\nsamples = 200\nvalue = 0.354", fillcolor="#f5ceb2"] ;
1 [label="x1 <= 0.092\nmse = 0.038\nsamples = 44\nvalue = 0.689", fillcolor="#eca36e"] ;
0 -> 1 [labeldistance=2.5, labelangle=45, headlabel="True"] ;
2 [label="x1 <= 0.046\nmse = 0.018\nsamples = 20\nvalue = 0.854", fillcolor="#e88d4c"] ;
1 -> 2 ;
3 [label="mse = 0.012\nsamples = 10\nvalue = 0.947", fillcolor="#e58139"] ;
2 -> 3 ;
4 [label="mse = 0.006\nsamples = 10\nvalue = 0.761", fillcolor="#ea995f"] ;
2 -> 4 ;
5 [label="x1 <= 0.139\nmse = 0.013\nsamples = 24\nvalue = 0.552", fillcolor="#f0b48a"] ;
1 -> 5 ;
6 [label="mse = 0.01\nsamples = 10\nvalue = 0.614", fillcolor="#eeac7d"] ;
5 -> 6 ;
7 [label="mse = 0.011\nsamples = 14\nvalue = 0.508", fillcolor="#f1ba93"] ;
5 -> 7 ;
8 [label="x1 <= 0.772\nmse = 0.074\nsamples = 156\nvalue = 0.259", fillcolor="#f7dbc6"] ;
0 -> 8 [labeldistance=2.5, labelangle=-45, headlabel="False"] ;
9 [label="x1 <= 0.287\nmse = 0.015\nsamples = 110\nvalue = 0.111", fillcolor="#fbeee4"] ;
8 -> 9 ;
10 [label="mse = 0.006\nsamples = 19\nvalue = 0.236", fillcolor="#f8decb"] ;
9 -> 10 ;
11 [label="x1 <= 0.628\nmse = 0.013\nsamples = 91\nvalue = 0.084", fillcolor="#fcf1ea"] ;
9 -> 11 ;
12 [label="x1 <= 0.422\nmse = 0.011\nsamples = 64\nvalue = 0.044", fillcolor="#fdf7f2"] ;
11 -> 12 ;
13 [label="x1 <= 0.319\nmse = 0.011\nsamples = 29\nvalue = 0.088", fillcolor="#fcf1e9"] ;
12 -> 13 ;
14 [label="mse = 0.01\nsamples = 10\nvalue = 0.054", fillcolor="#fdf5f0"] ;
13 -> 14 ;
15 [label="mse = 0.011\nsamples = 19\nvalue = 0.106", fillcolor="#fcefe5"] ;
13 -> 15 ;
16 [label="x1 <= 0.558\nmse = 0.008\nsamples = 35\nvalue = 0.007", fillcolor="#fefbf9"] ;
12 -> 16 ;
17 [label="x1 <= 0.517\nmse = 0.009\nsamples = 25\nvalue = -0.001", fillcolor="#fefdfb"] ;
16 -> 17 ;
18 [label="mse = 0.009\nsamples = 15\nvalue = 0.011", fillcolor="#fefbf9"] ;
17 -> 18 ;
19 [label="mse = 0.008\nsamples = 10\nvalue = -0.02", fillcolor="#ffffff"] ;
17 -> 19 ;
20 [label="mse = 0.005\nsamples = 10\nvalue = 0.028", fillcolor="#fef9f5"] ;
16 -> 20 ;
21 [label="x1 <= 0.707\nmse = 0.005\nsamples = 27\nvalue = 0.181", fillcolor="#fae5d6"] ;
11 -> 21 ;
22 [label="mse = 0.003\nsamples = 15\nvalue = 0.147", fillcolor="#fae9dd"] ;
21 -> 22 ;
23 [label="mse = 0.005\nsamples = 12\nvalue = 0.223", fillcolor="#f8dfcd"] ;
21 -> 23 ;
24 [label="x1 <= 0.904\nmse = 0.036\nsamples = 46\nvalue = 0.615", fillcolor="#eeac7d"] ;
8 -> 24 ;
25 [label="x1 <= 0.862\nmse = 0.012\nsamples = 28\nvalue = 0.489", fillcolor="#f1bd97"] ;
24 -> 25 ;
26 [label="mse = 0.005\nsamples = 16\nvalue = 0.42", fillcolor="#f3c6a5"] ;
25 -> 26 ;
27 [label="mse = 0.006\nsamples = 12\nvalue = 0.579", fillcolor="#efb184"] ;
25 -> 27 ;
28 [label="mse = 0.01\nsamples = 18\nvalue = 0.811", fillcolor="#e99355"] ;
24 -> 28 ;
}